digraph Tree {
node [shape=box, style="filled, rounded", color="black", fontname=helvetica] ;
edge [fontname=helvetica] ;
0 [label="Claims Rate <= 1214.29\ngini = 0.639\nsamples = 6586\nvalue = [1634, 3086, 1866]", fillcolor="#ccf8de"] ;
1 [label="Claims Rate <= 1190.73\ngini = 0.638\nsamples = 6573\nvalue = [1632, 3084, 1857]", fillcolor="#cbf8de"] ;
0 -> 1 [labeldistance=2.5, labelangle=45, headlabel="True"] ;
2 [label="Claims Rate <= -384.29\ngini = 0.638\nsamples = 6570\nvalue = [1629, 3084, 1857]", fillcolor="#cbf8de"] ;
1 -> 2 ;
3 [label="gini = 0.0\nsamples = 2\nvalue = [2, 0, 0]", fillcolor="#e58139"] ;
2 -> 3 ;
4 [label="Labels <= 0.017\ngini = 0.638\nsamples = 6568\nvalue = [1627, 3084, 1857]", fillcolor="#cbf8de"] ;
2 -> 4 ;
5 [label="Claims Rate <= 571.55\ngini = 0.633\nsamples = 1518\nvalue = [391, 732, 395]", fillcolor="#c4f7d9"] ;
4 -> 5 ;
6 [label="gini = 0.635\nsamples = 1505\nvalue = [389, 721, 395]", fillcolor="#c5f7da"] ;
5 -> 6 ;
7 [label="gini = 0.26\nsamples = 13\nvalue = [2, 11, 0]", fillcolor="#5dea98"] ;
5 -> 7 ;
8 [label="Labels <= 0.019\ngini = 0.639\nsamples = 5050\nvalue = [1236, 2352, 1462]", fillcolor="#cef9e0"] ;
4 -> 8 ;
9 [label="gini = 0.648\nsamples = 497\nvalue = [115, 210, 172]", fillcolor="#e8fcf0"] ;
8 -> 9 ;
10 [label="gini = 0.638\nsamples = 4553\nvalue = [1121, 2142, 1290]", fillcolor="#cbf8de"] ;
8 -> 10 ;
11 [label="gini = 0.0\nsamples = 3\nvalue = [3, 0, 0]", fillcolor="#e58139"] ;
1 -> 11 ;
12 [label="Labels <= 0.159\ngini = 0.473\nsamples = 13\nvalue = [2, 2, 9]", fillcolor="#af81ee"] ;
0 -> 12 [labeldistance=2.5, labelangle=-45, headlabel="False"] ;
13 [label="Labels <= 0.117\ngini = 0.314\nsamples = 11\nvalue = [1, 1, 9]", fillcolor="#9a61ea"] ;
12 -> 13 ;
14 [label="Labels <= 0.101\ngini = 0.625\nsamples = 4\nvalue = [1, 1, 2]", fillcolor="#d5bdf6"] ;
13 -> 14 ;
15 [label="gini = 0.0\nsamples = 2\nvalue = [0, 0, 2]", fillcolor="#8139e5"] ;
14 -> 15 ;
16 [label="Labels <= 0.112\ngini = 0.5\nsamples = 2\nvalue = [1, 1, 0]", fillcolor="#ffffff"] ;
14 -> 16 ;
17 [label="gini = 0.0\nsamples = 1\nvalue = [1, 0, 0]", fillcolor="#e58139"] ;
16 -> 17 ;
18 [label="gini = 0.0\nsamples = 1\nvalue = [0, 1, 0]", fillcolor="#39e581"] ;
16 -> 18 ;
19 [label="gini = 0.0\nsamples = 7\nvalue = [0, 0, 7]", fillcolor="#8139e5"] ;
13 -> 19 ;
20 [label="Claims Rate <= 1416.05\ngini = 0.5\nsamples = 2\nvalue = [1, 1, 0]", fillcolor="#ffffff"] ;
12 -> 20 ;
21 [label="gini = 0.0\nsamples = 1\nvalue = [0, 1, 0]", fillcolor="#39e581"] ;
20 -> 21 ;
22 [label="gini = 0.0\nsamples = 1\nvalue = [1, 0, 0]", fillcolor="#e58139"] ;
20 -> 22 ;
}